digraph Tree {
0 [label="shear <= 0.7306\nmse = 0.0291759892327\nsamples = 7088", shape="box"] ;
1 [label="jacobian <= 0.0000\nmse = 0.0817722063539\nsamples = 637", shape="box"] ;
0 -> 1 ;
2 [label="smallestAngle <= 17.1970\nmse = 0.0447777344\nsamples = 250", shape="box"] ;
1 -> 2 ;
3 [label="jacobian <= 0.0000\nmse = 0.0199528135952\nsamples = 213", shape="box"] ;
2 -> 3 ;
4 [label="mse = 0.0086\nsamples = 122\nvalue = [ 0.88622951]", shape="box"] ;
3 -> 4 ;
5 [label="mse = 0.0074\nsamples = 91\nvalue = [ 0.66593407]", shape="box"] ;
3 -> 5 ;
6 [label="stretch <= 0.1008\nmse = 0.0731167275383\nsamples = 37", shape="box"] ;
2 -> 6 ;
7 [label="mse = 0.0276\nsamples = 14\nvalue = [ 0.67285714]", shape="box"] ;
6 -> 7 ;
8 [label="mse = 0.0409\nsamples = 23\nvalue = [ 0.27478261]", shape="box"] ;
6 -> 8 ;
9 [label="jacobian <= 0.0002\nmse = 0.0535255813953\nsamples = 387", shape="box"] ;
1 -> 9 ;
10 [label="jacobian <= 0.0000\nmse = 0.031673102578\nsamples = 258", shape="box"] ;
9 -> 10 ;
11 [label="mse = 0.0134\nsamples = 115\nvalue = [ 0.44626087]", shape="box"] ;
10 -> 11 ;
12 [label="mse = 0.0168\nsamples = 143\nvalue = [ 0.18867133]", shape="box"] ;
10 -> 12 ;
13 [label="jacobian <= 0.0025\nmse = 0.0679606273661\nsamples = 129", shape="box"] ;
9 -> 13 ;
14 [label="mse = 0.0180\nsamples = 27\nvalue = [ 0.78814815]", shape="box"] ;
13 -> 14 ;
15 [label="mse = 0.0558\nsamples = 102\nvalue = [ 0.44019608]", shape="box"] ;
13 -> 15 ;
16 [label="taper <= 0.5007\nmse = 4.02453505133e-05\nsamples = 6451", shape="box"] ;
0 -> 16 ;
17 [label="skew <= 0.3552\nmse = 1.86152284835e-06\nsamples = 6443", shape="box"] ;
16 -> 17 ;
18 [label="mse = 0.0000\nsamples = 6440\nvalue = [  3.10559006e-06]", shape="box"] ;
17 -> 18 ;
19 [label="stretch <= 0.2728\nmse = 0.000266666666667\nsamples = 3", shape="box"] ;
17 -> 19 ;
20 [label="mse = 0.0000\nsamples = 1\nvalue = [ 0.08]", shape="box"] ;
19 -> 20 ;
21 [label="mse = 0.0001\nsamples = 2\nvalue = [ 0.05]", shape="box"] ;
19 -> 21 ;
22 [label="stretch <= 0.2725\nmse = 0.0021\nsamples = 8", shape="box"] ;
16 -> 22 ;
23 [label="skew <= 0.3558\nmse = 0.0005\nsamples = 4", shape="box"] ;
22 -> 23 ;
24 [label="mse = 0.0001\nsamples = 2\nvalue = [ 0.19]", shape="box"] ;
23 -> 24 ;
25 [label="mse = 0.0001\nsamples = 2\nvalue = [ 0.23]", shape="box"] ;
23 -> 25 ;
26 [label="taper <= 0.5008\nmse = 0.0005\nsamples = 4", shape="box"] ;
22 -> 26 ;
27 [label="mse = 0.0001\nsamples = 2\nvalue = [ 0.11]", shape="box"] ;
26 -> 27 ;
28 [label="mse = 0.0001\nsamples = 2\nvalue = [ 0.15]", shape="box"] ;
26 -> 28 ;
}